{"learner":{"attributes":{"best_iteration":"26","best_score":"0.6924327128828794"},"feature_names":[],"feature_types":[],"gradient_booster":{"model":{"cats":{"enc":[],"feature_segments":[],"sorted_idx":[]},"gbtree_model_param":{"num_parallel_tree":"1","num_trees":"27"},"iteration_indptr":[0,1,2,3,4,5,6,7,8,9,10,11,12,13,14,15,16,17,18,19,20,21,22,23,24,25,26,27],"tree_info":[0,0,0,0,0,0,0,0,0,0,0,0,0,0,0,0,0,0,0,0,0,0,0,0,0,0,0],"trees":[{"base_weights":[-9.389574E-4,1.6870934E-1,-6.0676E-1,-1.12304434E-1,3.8244683E-1,-4.2968413E-1,-1.0512313E0,6.909965E-2,-3.0322286E-1,3.0886012E-1,8.459294E-1,-7.1229494E-1,-1.8552099E-1,-1.2855175E0,-7.976372E-1,-3.0311614E-2,5.728763E-3,-4.763161E-2,-1.2930853E-2,2.1850038E-2,2.7165043E-3,3.4547307E-2,5.1207542E-2,-7.205283E-2,-3.3304375E-2,-1.3327603E-2,1.9903151E-2,-5.534777E-2,-7.19566E-2,-4.4145066E-2,-7.959804E-3],"categories":[],"categories_nodes":[],"categories_segments":[],"categories_sizes":[],"default_left":[0,0,0,0,0,0,0,0,0,0,0,0,0,0,0,0,0,0,0,0,0,0,0,0,0,0,0,0,0,0,0],"id":0,"left_children":[1,3,5,7,9,11,13,15,17,19,21,23,25,27,29,-1,-1,-1,-1,-1,-1,-1,-1,-1,-1,-1,-1,-1,-1,-1,-1],"loss_changes":[1.0660384E4,4.867069E3,1.7806436E3,1.2127633E3,1.5655488E3,1.1170557E3,3.7589307E2,5.6464923E2,4.720011E2,1.3277798E3,1.6909424E2,2.189458E2,4.252988E2,8.395215E1,1.7960095E2,0E0,0E0,0E0,0E0,0E0,0E0,0E0,0E0,0E0,0E0,0E0,0E0,0E0,0E0,0E0,0E0],"parents":[2147483647,0,0,1,1,2,2,3,3,4,4,5,5,6,6,7,7,8,8,9,9,10,10,11,11,12,12,13,13,14,14],"right_children":[2,4,6,8,10,12,14,16,18,20,22,24,26,28,30,-1,-1,-1,-1,-1,-1,-1,-1,-1,-1,-1,-1,-1,-1,-1,-1],"split_conditions":[3.973799E0,4.9E1,6.190476E0,2.3873873E0,6.8E1,4.9E1,5E1,2.9E1,2.9E1,2.75E0,7.2E1,2.8E1,6.8E1,1.94E2,6.8E1,-3.0311614E-2,5.728763E-3,-4.763161E-2,-1.2930853E-2,2.1850038E-2,2.7165043E-3,3.4547307E-2,5.1207542E-2,-7.205283E-2,-3.3304375E-2,-1.3327603E-2,1.9903151E-2,-5.534777E-2,-7.19566E-2,-4.4145066E-2,-7.959804E-3],"split_indices":[26,0,26,26,0,0,0,0,0,26,0,0,0,2,0,0,0,0,0,0,0,0,0,0,0,0,0,0,0,0,0],"split_type":[0,0,0,0,0,0,0,0,0,0,0,0,0,0,0,0,0,0,0,0,0,0,0,0,0,0,0,0,0,0,0],"sum_hessian":[1.0370792E5,8.101587E4,2.269205E4,3.4992883E4,4.602299E4,1.6233698E4,6.4583535E3,1.7934574E4,1.7058309E4,3.972453E4,6.298456E3,7.5172925E3,8.716405E3,3.348454E3,3.1098994E3,1.140179E3,1.6794395E4,1.0300587E3,1.602825E4,2.6152973E4,1.3571559E4,3.5106995E3,2.7877563E3,3.8647748E2,7.130815E3,7.639387E3,1.0770183E3,1.6665961E3,1.6818579E3,2.7107427E3,3.991566E2],"tree_param":{"num_deleted":"0","num_feature":"39","num_nodes":"31","size_leaf_vector":"1"}},{"base_weights":[-1.144485E-3,-1.8296209E-1,1.0341452E0,8.9440316E-2,-5.124222E-1,1.095922E0,5.687875E-1,-1.792569E-1,3.2376608E-1,-3.628878E-1,-1.0273391E0,9.6494E-1,1.1900425E0,3.7110424E-1,7.516383E-1,-4.257784E-2,-6.6890246E-3,1.2269935E-2,3.894509E-2,-2.77381E-2,-2.465504E-3,-6.2051363E-2,-3.933364E-2,3.958849E-2,5.21754E-2,6.1620656E-2,5.3467516E-2,3.243906E-2,1.0746316E-2,4.290662E-2,2.6061948E-2],"categories":[],"categories_nodes":[],"categories_segments":[],"categories_sizes":[],"default_left":[0,0,0,0,0,0,0,0,0,0,0,0,0,0,0,0,0,0,0,0,0,0,0,0,0,0,0,0,0,0,0],"id":1,"left_children":[1,3,5,7,9,11,13,15,17,19,21,23,25,27,29,-1,-1,-1,-1,-1,-1,-1,-1,-1,-1,-1,-1,-1,-1,-1,-1],"loss_changes":[1.9554484E4,7.9333223E3,4.3997852E2,3.046349E3,3.0754287E3,1.6060352E2,6.1981262E1,6.756787E2,9.071953E2,1.9053562E3,4.6406738E2,7.646973E1,3.7777344E1,3.5724876E1,1.9023132E1,0E0,0E0,0E0,0E0,0E0,0E0,0E0,0E0,0E0,0E0,0E0,0E0,0E0,0E0,0E0,0E0],"parents":[2147483647,0,0,1,1,2,2,3,3,4,4,5,5,6,6,7,7,8,8,9,9,10,10,11,11,12,12,13,13,14,14],"right_children":[2,4,6,8,10,12,14,16,18,20,22,24,26,28,30,-1,-1,-1,-1,-1,-1,-1,-1,-1,-1,-1,-1,-1,-1,-1,-1],"split_conditions":[1E0,7.6E1,1.18E2,5E1,1.34E2,4.9E1,5E1,2.9E1,6.8E1,5.4E1,5E1,2.48E1,7.6E1,1.34E2,1.6E2,-4.257784E-2,-6.6890246E-3,1.2269935E-2,3.894509E-2,-2.77381E-2,-2.465504E-3,-6.2051363E-2,-3.933364E-2,3.958849E-2,5.21754E-2,6.1620656E-2,5.3467516E-2,3.243906E-2,1.0746316E-2,4.290662E-2,2.6061948E-2],"split_indices":[18,2,2,0,2,0,0,0,0,0,0,6,2,2,2,0,0,0,0,0,0,0,0,0,0,0,0,0,0,0,0],"split_type":[0,0,0,0,0,0,0,0,0,0,0,0,0,0,0,0,0,0,0,0,0,0,0,0,0,0,0,0,0,0,0],"sum_hessian":[1.03898055E5,8.838055E4,1.5517503E4,4.8374184E4,4.0006363E4,1.3691607E4,1.8258955E3,2.252766E4,2.5846525E4,3.1009045E4,8.997318E3,5.7433223E3,7.9482847E3,8.8739557E2,9.385E2,1.3761007E3,2.1151559E4,2.2184482E4,3.662042E3,1.9049969E4,1.1959076E4,4.5916123E3,4.405706E3,1.9871442E3,3.7561782E3,5.3864814E3,2.5618032E3,3.0464105E2,5.827545E2,6.134227E2,3.2507724E2],"tree_param":{"num_deleted":"0","num_feature":"39","num_nodes":"31","size_leaf_vector":"1"}},{"base_weights":[1.5760283E-3,-1.708851E-1,9.9819416E-1,4.0572528E-2,-5.9410584E-1,1.0800147E0,6.458336E-1,-2.3327537E-1,2.5222683E-1,-4.3416962E-1,-9.956503E-1,8.8029414E-1,1.1353618E0,4.3885705E-1,8.3598745E-1,-1.8285396E-2,-2.4406787E-3,8.93316E-3,3.533947E-2,-3.364422E-2,-9.604954E-3,-5.4714344E-2,-2.4520293E-2,1.50866425E-2,4.5511037E-2,5.366092E-2,6.145352E-2,2.8921865E-2,8.008354E-3,4.4874854E-2,2.8414657E-2],"categories":[],"categories_nodes":[],"categories_segments":[],"categories_sizes":[],"default_left":[0,0,0,0,0,0,0,0,0,0,0,0,0,0,0,0,0,0,0,0,0,0,0,0,0,0,0,0,0,0,0],"id":2,"left_children":[1,3,5,7,9,11,13,15,17,19,21,23,25,27,29,-1,-1,-1,-1,-1,-1,-1,-1,-1,-1,-1,-1,-1,-1,-1,-1],"loss_changes":[1.7852902E4,7.924749E3,4.3536914E2,3.4215178E3,1.8894082E3,1.2975E2,1.0940198E2,6.398469E2,1.1022344E3,1.2365312E3,4.4695703E2,5.403125E1,4.488965E1,5.331891E1,2.1748291E1,0E0,0E0,0E0,0E0,0E0,0E0,0E0,0E0,0E0,0E0,0E0,0E0,0E0,0E0,0E0,0E0],"parents":[2147483647,0,0,1,1,2,2,3,3,4,4,5,5,6,6,7,7,8,8,9,9,10,10,11,11,12,12,13,13,14,14],"right_children":[2,4,6,8,10,12,14,16,18,20,22,24,26,28,30,-1,-1,-1,-1,-1,-1,-1,-1,-1,-1,-1,-1,-1,-1,-1,-1],"split_conditions":[1E0,3.3984373E0,3.9999998E0,4.9E1,5.477178E0,4.2E1,5E1,2.4181817E0,6.8E1,5E1,6.1E1,2.7E1,5.9E1,1.41E2,1.6E2,-1.8285396E-2,-2.4406787E-3,8.93316E-3,3.533947E-2,-3.364422E-2,-9.604954E-3,-5.4714344E-2,-2.4520293E-2,1.50866425E-2,4.5511037E-2,5.366092E-2,6.145352E-2,2.8921865E-2,8.008354E-3,4.4874854E-2,2.8414657E-2],"split_indices":[18,26,26,0,26,0,0,24,0,0,0,0,0,2,2,0,0,0,0,0,0,0,0,0,0,0,0,0,0,0,0],"split_type":[0,0,0,0,0,0,0,0,0,0,0,0,0,0,0,0,0,0,0,0,0,0,0,0,0,0,0,0,0,0,0],"sum_hessian":[1.0385179E5,8.852927E4,1.53225205E4,5.9028746E4,2.9500527E4,1.2425947E4,2.8965735E3,2.5726447E4,3.3302297E4,2.1104537E4,8.39599E3,2.7123296E3,9.713617E3,1.3966833E3,1.4998903E3,1.481033E4,1.0916116E4,2.8799936E4,4.5023623E3,1.046353E4,1.0641008E4,6.9059277E3,1.490062E3,1.7122371E2,2.541106E3,6.441942E3,3.2716758E3,9.1006683E2,4.8661646E2,1.1770419E3,3.2284842E2],"tree_param":{"num_deleted":"0","num_feature":"39","num_nodes":"31","size_leaf_vector":"1"}},{"base_weights":[6.2995765E-4,2.0518996E-1,-3.7462223E-1,6.12295E-2,3.5577837E-1,-2.0876153E-1,-7.314195E-1,1.7604344E-1,-7.755386E-2,4.6314168E-1,1.7179932E-1,-4.0260914E-1,-1.13093324E-1,-5.8886904E-1,-1.027401E0,-3.0213797E-3,1.187632E-2,-9.769009E-3,2.4694526E-3,1.2394881E-2,2.6749397E-2,3.808816E-3,1.8660923E-2,-2.8255463E-2,-1.5702154E-2,-1.191751E-2,8.3924644E-4,-3.2832816E-2,-1.4547126E-2,-3.5187718E-2,-5.459108E-2],"categories":[],"categories_nodes":[],"categories_segments":[],"categories_sizes":[],"default_left":[0,0,0,0,0,0,0,0,0,0,0,0,0,0,0,0,0,0,0,0,0,0,0,0,0,0,0,0,0,0,0],"id":3,"left_children":[1,3,5,7,9,11,13,15,17,19,21,23,25,27,29,-1,-1,-1,-1,-1,-1,-1,-1,-1,-1,-1,-1,-1,-1,-1,-1],"loss_changes":[7.957646E3,1.4532812E3,2.1608862E3,5.472002E2,6.4535986E2,4.6132642E2,4.8340625E2,2.8311334E2,2.3661832E2,3.3347607E2,2.3336328E2,1.152616E2,2.7752548E2,1.6606006E2,8.0958496E1,0E0,0E0,0E0,0E0,0E0,0E0,0E0,0E0,0E0,0E0,0E0,0E0,0E0,0E0,0E0,0E0],"parents":[2147483647,0,0,1,1,2,2,3,3,4,4,5,5,6,6,7,7,8,8,9,9,10,10,11,11,12,12,13,13,14,14],"right_children":[2,4,6,8,10,12,14,16,18,20,22,24,26,28,30,-1,-1,-1,-1,-1,-1,-1,-1,-1,-1,-1,-1,-1,-1,-1,-1],"split_conditions":[3.296703E0,1.05E2,5.1046023E0,2.24E0,2.3873873E0,9.3E1,7.66187E0,8.1E1,1.16E2,1.12E2,1.24E2,7.9E1,1.17E2,1.25E2,5.8E1,-3.0213797E-3,1.187632E-2,-9.769009E-3,2.4694526E-3,1.2394881E-2,2.6749397E-2,3.808816E-3,1.8660923E-2,-2.8255463E-2,-1.5702154E-2,-1.191751E-2,8.3924644E-4,-3.2832816E-2,-1.4547126E-2,-3.5187718E-2,-5.459108E-2],"split_indices":[26,13,26,26,26,13,26,13,8,8,8,13,8,8,10,0,0,0,0,0,0,0,0,0,0,0,0,0,0,0,0],"split_type":[0,0,0,0,0,0,0,0,0,0,0,0,0,0,0,0,0,0,0,0,0,0,0,0,0,0,0,0,0,0,0],"sum_hessian":[1.0367317E5,6.710299E4,3.6570184E4,3.4318613E4,3.278438E4,2.4972291E4,1.1597892E4,1.879457E4,1.5524041E4,2.0690484E4,1.2093894E4,8.239312E3,1.673298E4,7.8370845E3,3.7608066E3,3.9569966E3,1.4837574E4,8.0248857E3,7.4991553E3,5.461473E3,1.5229012E4,8.269536E3,3.8243567E3,2.7843743E3,5.454937E3,8.4708545E3,8.262127E3,6.2720166E3,1.5650679E3,7.152903E2,3.0455164E3],"tree_param":{"num_deleted":"0","num_feature":"39","num_nodes":"31","size_leaf_vector":"1"}},{"base_weights":[-8.0601085E-4,-1.6465944E-1,9.6245E-1,6.6994525E-2,-4.8642576E-1,1.0418177E0,6.2584496E-1,-1.16062894E-1,3.3905125E-1,-3.4644637E-1,-8.655657E-1,8.5377693E-1,1.0940386E0,4.5097196E-1,7.8726053E-1,-1.621826E-2,-1.8074457E-4,1.3050298E-2,3.7147015E-2,-2.9543627E-2,-6.6906987E-3,-4.6380788E-2,-1.1783948E-2,1.4489463E-2,4.4093076E-2,5.2068613E-2,6.0051173E-2,2.9097335E-2,1.2672528E-2,4.210665E-2,2.6413964E-2],"categories":[],"categories_nodes":[],"categories_segments":[],"categories_sizes":[],"default_left":[0,0,0,0,0,0,0,0,0,0,0,0,0,0,0,0,0,0,0,0,0,0,0,0,0,0,0,0,0,0,0],"id":4,"left_children":[1,3,5,7,9,11,13,15,17,19,21,23,25,27,29,-1,-1,-1,-1,-1,-1,-1,-1,-1,-1,-1,-1,-1,-1,-1,-1],"loss_changes":[1.6369001E4,6.6094326E3,3.9660156E2,2.5674812E3,1.9653779E3,1.1237207E2,7.698718E1,7.2932764E2,6.4175195E2,1.4271389E3,4.3317432E2,4.8645386E1,4.046875E1,3.4079956E1,1.8380737E1,0E0,0E0,0E0,0E0,0E0,0E0,0E0,0E0,0E0,0E0,0E0,0E0,0E0,0E0,0E0,0E0],"parents":[2147483647,0,0,1,1,2,2,3,3,4,4,5,5,6,6,7,7,8,8,9,9,10,10,11,11,12,12,13,13,14,14],"right_children":[2,4,6,8,10,12,14,16,18,20,22,24,26,28,30,-1,-1,-1,-1,-1,-1,-1,-1,-1,-1,-1,-1,-1,-1,-1,-1],"split_conditions":[1E0,3.0543933E0,3.9999998E0,5.4E1,5.1724133E0,4.2E1,5E1,4.1E1,6.9E1,4.9E1,6.5E1,2.7E1,6.1E1,5.3962264E0,6.6812224E0,-1.621826E-2,-1.8074457E-4,1.3050298E-2,3.7147015E-2,-2.9543627E-2,-6.6906987E-3,-4.6380788E-2,-1.1783948E-2,1.4489463E-2,4.4093076E-2,5.2068613E-2,6.0051173E-2,2.9097335E-2,1.2672528E-2,4.210665E-2,2.6413964E-2],"split_indices":[18,26,26,0,26,0,0,0,0,0,0,0,0,26,26,0,0,0,0,0,0,0,0,0,0,0,0,0,0,0,0],"split_type":[0,0,0,0,0,0,0,0,0,0,0,0,0,0,0,0,0,0,0,0,0,0,0,0,0,0,0,0,0,0,0],"sum_hessian":[1.0372692E5,8.865117E4,1.507575E4,5.1537168E4,3.7114E4,1.218986E4,2.8858901E3,3.0800441E4,2.0736727E4,2.7113883E4,1.000012E4,2.666395E3,9.523465E3,1.3966777E3,1.4892125E3,1.0696437E4,2.0104006E4,1.7505023E4,3.2317036E3,1.2439066E4,1.4674815E4,8.996598E3,1.0035224E3,1.6381326E2,2.5025818E3,6.9379136E3,2.5855515E3,8.130653E2,5.836124E2,1.1863727E3,3.0283975E2],"tree_param":{"num_deleted":"0","num_feature":"39","num_nodes":"31","size_leaf_vector":"1"}},{"base_weights":[1.7522816E-3,-1.531869E-1,9.2773026E-1,9.369609E-2,-4.30593E-1,1.0039579E0,6.0802203E-1,-8.060205E-2,3.5318244E-1,-5.3524804E-1,2.1729125E-2,8.945307E-1,1.083101E0,2.7510905E-1,7.0087606E-1,-1.4117151E-2,1.4049447E-3,1.4003121E-2,3.650593E-2,-2.1585513E-2,-4.7634836E-2,7.820205E-3,-1.8328117E-2,1.2963046E-2,4.536672E-2,5.237252E-2,6.1834678E-2,1.8548258E-2,-1.133729E-2,3.0798499E-2,4.6024818E-2],"categories":[],"categories_nodes":[],"categories_segments":[],"categories_sizes":[],"default_left":[0,0,0,0,0,0,0,0,0,0,0,0,0,0,0,0,0,0,0,0,0,0,0,0,0,0,0,0,0,0,0],"id":5,"left_children":[1,3,5,7,9,11,13,15,17,19,21,23,25,27,29,-1,-1,-1,-1,-1,-1,-1,-1,-1,-1,-1,-1,-1,-1,-1,-1],"loss_changes":[1.4853397E4,6.0739434E3,3.5571582E2,2.1226167E3,1.9786304E3,9.623535E1,8.516406E1,6.2445575E2,5.077832E2,1.4374346E3,4.164559E2,6.0447266E1,2.1887207E1,3.2169617E1,3.4808594E1,0E0,0E0,0E0,0E0,0E0,0E0,0E0,0E0,0E0,0E0,0E0,0E0,0E0,0E0,0E0,0E0],"parents":[2147483647,0,0,1,1,2,2,3,3,4,4,5,5,6,6,7,7,8,8,9,9,10,10,11,11,12,12,13,13,14,14],"right_children":[2,4,6,8,10,12,14,16,18,20,22,24,26,28,30,-1,-1,-1,-1,-1,-1,-1,-1,-1,-1,-1,-1,-1,-1,-1,-1],"split_conditions":[1E0,2.8621907E0,3.9999998E0,5.4E1,6.1E1,4.9E1,4.1E1,4.1E1,6.9E1,1.41E2,4.9259257E0,2.7E1,6.8E1,7.66187E0,6.1E1,-1.4117151E-2,1.4049447E-3,1.4003121E-2,3.650593E-2,-2.1585513E-2,-4.7634836E-2,7.820205E-3,-1.8328117E-2,1.2963046E-2,4.536672E-2,5.237252E-2,6.1834678E-2,1.8548258E-2,-1.133729E-2,3.0798499E-2,4.6024818E-2],"split_indices":[18,26,26,0,0,0,0,0,0,2,26,0,0,26,0,0,0,0,0,0,0,0,0,0,0,0,0,0,0,0,0],"split_type":[0,0,0,0,0,0,0,0,0,0,0,0,0,0,0,0,0,0,0,0,0,0,0,0,0,0,0,0,0,0,0],"sum_hessian":[1.0350952E5,8.866976E4,1.48397705E4,4.690968E4,4.1760074E4,1.1972866E4,2.866904E3,2.805338E4,1.8856299E4,3.3919477E4,7.840598E3,5.0468438E3,6.926023E3,6.338911E2,2.233013E3,9.774301E3,1.8279082E4,1.592143E4,2.9348699E3,2.7469037E4,6.4504404E3,5.825645E3,2.014953E3,1.617957E2,4.885048E3,5.965462E3,9.605609E2,5.357028E2,9.818828E1,1.6652428E3,5.6777E2],"tree_param":{"num_deleted":"0","num_feature":"39","num_nodes":"31","size_leaf_vector":"1"}},{"base_weights":[-2.8730207E-3,-1.5140131E-1,8.985898E-1,4.791665E-2,-4.4787222E-1,9.723227E-1,5.8966696E-1,-6.1700277E-2,2.3685838E-1,-3.6446324E-1,-9.247183E-1,8.8567483E-1,1.0442972E0,6.955823E-1,4.0529987E-1,-1.2230586E-2,1.8064748E-3,7.438074E-3,2.1189628E-2,-2.1681173E-2,-6.476168E-3,-3.909684E-2,-5.2470587E-2,5.0010256E-2,4.0021464E-2,4.7895882E-2,5.442997E-2,3.1277053E-2,4.202828E-2,7.403888E-3,2.661818E-2],"categories":[],"categories_nodes":[],"categories_segments":[],"categories_sizes":[],"default_left":[0,0,0,0,0,0,0,0,0,0,0,0,0,0,0,0,0,0,0,0,0,0,0,0,0,0,0,0,0,0,0],"id":6,"left_children":[1,3,5,7,9,11,13,15,17,19,21,23,25,27,29,-1,-1,-1,-1,-1,-1,-1,-1,-1,-1,-1,-1,-1,-1,-1,-1],"loss_changes":[1.3838941E4,5.246233E3,3.272588E2,1.0997273E3,1.4148267E3,6.628027E1,5.124945E1,6.099047E2,3.2048047E2,5.146846E2,8.9546875E1,4.5134277E1,1.8996582E1,1.2139648E1,3.2761887E1,0E0,0E0,0E0,0E0,0E0,0E0,0E0,0E0,0E0,0E0,0E0,0E0,0E0,0E0,0E0,0E0],"parents":[2147483647,0,0,1,1,2,2,3,3,4,4,5,5,6,6,7,7,8,8,9,9,10,10,11,11,12,12,13,13,14,14],"right_children":[2,4,6,8,10,12,14,16,18,20,22,24,26,28,30,-1,-1,-1,-1,-1,-1,-1,-1,-1,-1,-1,-1,-1,-1,-1,-1],"split_conditions":[1E0,3.1343281E0,3.9999998E0,2.53125E0,6.509804E0,1.16E2,5.5603447E0,1.12E2,1.24E2,1.24E2,8.423423E0,2.033898E0,1.875E0,1.22E2,9.3E1,-1.2230586E-2,1.8064748E-3,7.438074E-3,2.1189628E-2,-2.1681173E-2,-6.476168E-3,-3.909684E-2,-5.2470587E-2,5.0010256E-2,4.0021464E-2,4.7895882E-2,5.442997E-2,3.1277053E-2,4.202828E-2,7.403888E-3,2.661818E-2],"split_indices":[18,26,26,24,26,8,26,8,8,8,26,26,23,8,13,0,0,0,0,0,0,0,0,0,0,0,0,0,0,0,0],"split_type":[0,0,0,0,0,0,0,0,0,0,0,0,0,0,0,0,0,0,0,0,0,0,0,0,0,0,0,0,0,0,0],"sum_hessian":[1.03376125E5,8.875664E4,1.46194795E4,5.3067977E4,3.5688668E4,1.1792312E4,2.827168E3,3.3572695E4,1.9495281E4,3.0382633E4,5.3060366E3,5.376597E3,6.4157144E3,1.7825718E3,1.0445962E3,1.1650912E4,2.1921783E4,1.340012E4,6.095161E3,2.3165648E4,7.216983E3,2.6376133E3,2.6684236E3,2.080491E3,3.2961062E3,2.6225664E3,3.793148E3,1.2670817E3,5.154902E2,3.6369247E2,6.809038E2],"tree_param":{"num_deleted":"0","num_feature":"39","num_nodes":"31","size_leaf_vector":"1"}},{"base_weights":[-4.8692952E-4,-1.4109604E-1,8.6640453E-1,1.5078207E-2,-4.9928638E-1,9.4003844E-1,5.618071E-1,-1.4845604E-1,2.6375002E-1,-5.9503245E-1,-6.270057E-2,8.301508E-1,1.0304188E0,3.98881E-1,7.133358E-1,-3.993253E-2,-5.7552014E-3,9.485353E-3,3.293509E-2,-2.436795E-2,-4.5731153E-2,-8.646649E-3,2.0169117E-2,3.8196333E-2,4.896102E-2,5.3483132E-2,4.657838E-2,2.6217425E-2,8.0000395E-3,3.8743183E-2,2.2936301E-2],"categories":[],"categories_nodes":[],"categories_segments":[],"categories_sizes":[],"default_left":[0,0,0,0,0,0,0,0,0,0,0,0,0,0,0,0,0,0,0,0,0,0,0,0,0,0,0,0,0,0,0],"id":7,"left_children":[1,3,5,7,9,11,13,15,17,19,21,23,25,27,29,-1,-1,-1,-1,-1,-1,-1,-1,-1,-1,-1,-1,-1,-1,-1,-1],"loss_changes":[1.2575874E4,4.96879E3,3.1741602E2,2.5147275E3,1.1249648E3,1.0808008E2,6.545691E1,7.905042E2,7.090803E2,7.446494E2,2.5381381E2,4.28916E1,2.01167E1,3.976024E1,2.0104126E1,0E0,0E0,0E0,0E0,0E0,0E0,0E0,0E0,0E0,0E0,0E0,0E0,0E0,0E0,0E0,0E0],"parents":[2147483647,0,0,1,1,2,2,3,3,4,4,5,5,6,6,7,7,8,8,9,9,10,10,11,11,12,12,13,13,14,14],"right_children":[2,4,6,8,10,12,14,16,18,20,22,24,26,28,30,-1,-1,-1,-1,-1,-1,-1,-1,-1,-1,-1,-1,-1,-1,-1,-1],"split_conditions":[1E0,3.5661764E0,3.9999998E0,5.4E1,6.1E1,5E1,5E1,2.9E1,6.9E1,6.0573473E0,7.1E1,1.39E2,2.6829267E0,5.6521735E0,1.6E2,-3.993253E-2,-5.7552014E-3,9.485353E-3,3.293509E-2,-2.436795E-2,-4.5731153E-2,-8.646649E-3,2.0169117E-2,3.8196333E-2,4.896102E-2,5.3483132E-2,4.657838E-2,2.6217425E-2,8.0000395E-3,3.8743183E-2,2.2936301E-2],"split_indices":[18,26,26,0,0,0,0,0,0,26,0,14,26,26,2,0,0,0,0,0,0,0,0,0,0,0,0,0,0,0,0],"split_type":[0,0,0,0,0,0,0,0,0,0,0,0,0,0,0,0,0,0,0,0,0,0,0,0,0,0,0,0,0,0,0],"sum_hessian":[1.0319052E5,8.879293E4,1.4397599E4,6.182693E4,2.6965996E4,1.1584436E4,2.8131633E3,3.7290234E4,2.45367E4,2.2109201E4,4.856795E3,5.248374E3,6.336061E3,1.3677333E3,1.44543E3,1.74799E3,3.5542242E4,2.078307E4,3.7536282E3,1.6796734E4,5.312467E3,3.929798E3,9.269969E2,3.817035E3,1.4313391E3,4.1221367E3,2.2139246E3,8.7469714E2,4.930361E2,1.1257181E3,3.1971188E2],"tree_param":{"num_deleted":"0","num_feature":"39","num_nodes":"31","size_leaf_vector":"1"}},{"base_weights":[-5.658818E-4,-1.3389447E-1,8.3629495E-1,9.716315E-2,-3.5665888E-1,9.124328E-1,5.3764725E-1,-1.7314771E-2,4.3971002E-1,-5.710302E-1,-1.7112261E-1,8.024381E-1,1.0041325E0,3.567564E-1,7.078924E-1,-1.1708644E-2,4.086159E-3,1.8918429E-2,4.0963665E-2,-2.1887671E-2,-4.1102808E-2,-3.5438407E-3,-2.6407808E-2,3.53389E-2,4.5868903E-2,4.8337165E-2,5.7999656E-2,2.3559626E-2,6.1133006E-3,2.957931E-2,4.520775E-2],"categories":[],"categories_nodes":[],"categories_segments":[],"categories_sizes":[],"default_left":[0,0,0,0,0,0,0,0,0,0,0,0,0,0,0,0,0,0,0,0,0,0,0,0,0,0,0,0,0,0,0],"id":8,"left_children":[1,3,5,7,9,11,13,15,17,19,21,23,25,27,29,-1,-1,-1,-1,-1,-1,-1,-1,-1,-1,-1,-1,-1,-1,-1,-1],"loss_changes":[1.150975E4,4.5819116E3,3.1701367E2,1.714331E3,1.7999829E3,1.07072266E2,8.519263E1,7.1453516E2,2.419685E2,6.979995E2,8.732131E2,5.0615967E1,2.1751465E1,3.692656E1,2.8016052E1,0E0,0E0,0E0,0E0,0E0,0E0,0E0,0E0,0E0,0E0,0E0,0E0,0E0,0E0,0E0,0E0],"parents":[2147483647,0,0,1,1,2,2,3,3,4,4,5,5,6,6,7,7,8,8,9,9,10,10,11,11,12,12,13,13,14,14],"right_children":[2,4,6,8,10,12,14,16,18,20,22,24,26,28,30,-1,-1,-1,-1,-1,-1,-1,-1,-1,-1,-1,-1,-1,-1,-1,-1],"split_conditions":[1E0,2.7376425E0,3.9495797E0,5.9E1,4.9E1,5E1,5E1,4.2E1,7.2E1,4.5454545E0,5.1724133E0,1.9807692E0,6.8E1,1.41E2,6.2E1,-1.1708644E-2,4.086159E-3,1.8918429E-2,4.0963665E-2,-2.1887671E-2,-4.1102808E-2,-3.5438407E-3,-2.6407808E-2,3.53389E-2,4.5868903E-2,4.8337165E-2,5.7999656E-2,2.3559626E-2,6.1133006E-3,2.957931E-2,4.520775E-2],"split_indices":[18,26,26,0,0,0,0,0,0,26,26,23,0,2,0,0,0,0,0,0,0,0,0,0,0,0,0,0,0,0,0],"split_type":[0,0,0,0,0,0,0,0,0,0,0,0,0,0,0,0,0,0,0,0,0,0,0,0,0,0,0,0,0,0,0],"sum_hessian":[1.0317493E5,8.9000125E4,1.4174804E4,4.3679508E4,4.532062E4,1.1284888E4,2.8899167E3,3.2731445E4,1.09480625E4,2.1017156E4,2.4303465E4,5.1507573E3,6.13413E3,1.4119689E3,1.4779479E3,1.0257674E4,2.2473771E4,9.522443E3,1.4256187E3,1.3991957E4,7.0251987E3,1.9057516E4,5.2459478E3,2.989351E3,2.1614062E3,5.2277344E3,9.0639545E2,9.269481E2,4.8502066E2,9.678402E2,5.1010767E2],"tree_param":{"num_deleted":"0","num_feature":"39","num_nodes":"31","size_leaf_vector":"1"}},{"base_weights":[5.35817E-4,-1.2582763E-1,8.071892E-1,6.330719E-2,-3.461636E-1,8.5106975E-1,3.4558883E-1,-8.7514885E-2,2.1270521E-1,-2.5702482E-1,-7.141407E-1,9.1660583E-1,7.3283243E-1,1.5990315E-1,4.9594063E-1,-7.922712E-3,5.5046473E-3,4.1830684E-3,1.6198477E-2,-1.7337963E-2,-1.7728814E-3,-4.1404415E-2,-2.497312E-2,4.090742E-2,4.94134E-2,2.9460926E-2,4.0223256E-2,1.6070308E-2,-2.0374802E-3,1.8267833E-2,3.309927E-2],"categories":[],"categories_nodes":[],"categories_segments":[],"categories_sizes":[],"default_left":[0,0,0,0,0,0,0,0,0,0,0,0,0,0,0,0,0,0,0,0,0,0,0,0,0,0,0,0,0,0,0],"id":9,"left_children":[1,3,5,7,9,11,13,15,17,19,21,23,25,27,29,-1,-1,-1,-1,-1,-1,-1,-1,-1,-1,-1,-1,-1,-1,-1,-1],"loss_changes":[1.0493669E4,3.7091475E3,2.7811914E2,1.0791494E3,1.3449697E3,9.24834E1,3.1711914E1,3.416341E2,3.5040662E2,6.7672217E2,1.9872095E2,5.2938477E1,4.435083E1,1.9332943E1,1.0776001E1,0E0,0E0,0E0,0E0,0E0,0E0,0E0,0E0,0E0,0E0,0E0,0E0,0E0,0E0,0E0,0E0],"parents":[2147483647,0,0,1,1,2,2,3,3,4,4,5,5,6,6,7,7,8,8,9,9,10,10,11,11,12,12,13,13,14,14],"right_children":[2,4,6,8,10,12,14,16,18,20,22,24,26,28,30,-1,-1,-1,-1,-1,-1,-1,-1,-1,-1,-1,-1,-1,-1,-1,-1],"split_conditions":[1E0,7.6E1,1.32E2,2.2807016E0,1.41E2,7.6E1,2.1967213E0,1.98E2,2.68E1,2.5961537E0,2.4074073E0,1.890625E0,8.5E-1,6.7E1,2.7E1,-7.922712E-3,5.5046473E-3,4.1830684E-3,1.6198477E-2,-1.7337963E-2,-1.7728814E-3,-4.1404415E-2,-2.497312E-2,4.090742E-2,4.94134E-2,2.9460926E-2,4.0223256E-2,1.6070308E-2,-2.0374802E-3,1.8267833E-2,3.309927E-2],"split_indices":[18,2,2,24,2,2,24,11,6,24,24,23,7,10,6,0,0,0,0,0,0,0,0,0,0,0,0,0,0,0,0],"split_type":[0,0,0,0,0,0,0,0,0,0,0,0,0,0,0,0,0,0,0,0,0,0,0,0,0,0,0,0,0,0,0],"sum_hessian":[1.0292394E5,8.898124E4,1.3942693E4,4.7872652E4,4.1108586E4,1.2725013E4,1.2176807E3,2.381152E4,2.4061133E4,3.3100766E4,8.0078203E3,8.165388E3,4.5596245E3,5.556705E2,6.6201025E2,1.7471252E4,6.3402686E3,1.1328045E4,1.2733088E4,2.3326266E4,9.774502E3,5.078281E3,2.9295396E3,3.820418E3,4.34497E3,1.6613873E3,2.8982373E3,3.1502484E2,2.4064561E2,3.922915E2,2.6971875E2],"tree_param":{"num_deleted":"0","num_feature":"39","num_nodes":"31","size_leaf_vector":"1"}},{"base_weights":[8.9310306E-5,-1.2124667E-1,7.853009E-1,-1.0954315E-2,-4.9168587E-1,8.5915995E-1,5.083418E-1,1.2909628E-1,-1.4363833E-1,-4.0094486E-1,-8.023481E-1,7.6091653E-1,9.315778E-1,5.7422596E-1,2.1666166E-1,-4.058884E-3,1.125357E-2,-1.3746571E-2,-8.423768E-4,-2.3195019E-2,-8.510288E-3,-4.555578E-2,-3.345697E-2,3.4918778E-2,4.627437E-2,4.9402297E-2,4.214593E-2,2.5437804E-2,3.5846815E-2,3.0156798E-3,3.047232E-2],"categories":[],"categories_nodes":[],"categories_segments":[],"categories_sizes":[],"default_left":[0,0,0,0,0,0,0,0,0,0,0,0,0,0,0,0,0,0,0,0,0,0,0,0,0,0,0,0,0,0,0],"id":10,"left_children":[1,3,5,7,9,11,13,15,17,19,21,23,25,27,29,-1,-1,-1,-1,-1,-1,-1,-1,-1,-1,-1,-1,-1,-1,-1,-1],"loss_changes":[9.786841E3,3.6324438E3,2.762627E2,1.2738901E3,5.707261E2,7.08501E1,5.3051147E1,6.883627E2,5.945774E2,2.3961475E2,6.242871E1,3.9173584E1,2.5901855E1,1.7007141E1,3.1521986E1,0E0,0E0,0E0,0E0,0E0,0E0,0E0,0E0,0E0,0E0,0E0,0E0,0E0,0E0,0E0,0E0],"parents":[2147483647,0,0,1,1,2,2,3,3,4,4,5,5,6,6,7,7,8,8,9,9,10,10,11,11,12,12,13,13,14,14],"right_children":[2,4,6,8,10,12,14,16,18,20,22,24,26,28,30,-1,-1,-1,-1,-1,-1,-1,-1,-1,-1,-1,-1,-1,-1,-1,-1],"split_conditions":[1E0,3.9999998E0,3.9224136E0,2.3333333E0,6.861924E0,1.15E2,1.69E2,1.25E2,1.88E0,1.24E2,1.31E2,1.39E2,2.3873873E0,1.22E2,2.7E1,-4.058884E-3,1.125357E-2,-1.3746571E-2,-8.423768E-4,-2.3195019E-2,-8.510288E-3,-4.555578E-2,-3.345697E-2,3.4918778E-2,4.627437E-2,4.9402297E-2,4.214593E-2,2.5437804E-2,3.5846815E-2,3.0156798E-3,3.047232E-2],"split_indices":[18,26,26,26,26,8,2,22,23,8,22,14,26,8,6,0,0,0,0,0,0,0,0,0,0,0,0,0,0,0,0],"split_type":[0,0,0,0,0,0,0,0,0,0,0,0,0,0,0,0,0,0,0,0,0,0,0,0,0,0,0,0,0,0,0],"sum_hessian":[1.0269736E5,8.894867E4,1.3748691E4,6.854921E4,2.0399457E4,1.08431875E4,2.9055037E3,3.3336293E4,3.521292E4,1.5797754E4,4.6017026E3,4.62469E3,6.218498E3,2.3599995E3,5.45504E2,1.0550224E4,2.2786068E4,1.7126674E4,1.8086248E4,1.2224212E4,3.5735425E3,2.393075E3,2.2086277E3,3.49459E3,1.1300999E3,3.4471108E3,2.7713872E3,1.6891969E3,6.708027E2,3.9871027E2,1.4679378E2],"tree_param":{"num_deleted":"0","num_feature":"39","num_nodes":"31","size_leaf_vector":"1"}},{"base_weights":[1.8492748E-4,-1.1430573E-1,7.55314E-1,8.4997065E-2,-3.0776507E-1,8.398815E-1,4.95877E-1,-1.7173165E-1,2.2027268E-1,-3.9741436E-1,8.2795314E-2,6.287499E-1,8.997378E-1,3.3169368E-1,6.482983E-1,-3.4628887E-2,-6.1183255E-3,6.7182365E-3,2.4282657E-2,-1.5578071E-2,-3.51146E-2,-2.693148E-3,2.0660602E-2,7.3130587E-3,3.2747064E-2,3.9475378E-2,4.7769777E-2,2.195089E-2,6.030457E-3,2.780595E-2,4.0309954E-2],"categories":[],"categories_nodes":[],"categories_segments":[],"categories_sizes":[],"default_left":[0,0,0,0,0,0,0,0,0,0,0,0,0,0,0,0,0,0,0,0,0,0,0,0,0,0,0,0,0,0,0],"id":11,"left_children":[1,3,5,7,9,11,13,15,17,19,21,23,25,27,29,-1,-1,-1,-1,-1,-1,-1,-1,-1,-1,-1,-1,-1,-1,-1,-1],"loss_changes":[8.860267E3,3.4310142E3,2.9116992E2,1.5217686E3,1.5820757E3,1.22825195E2,7.979236E1,3.8190936E2,6.534785E2,9.467949E2,3.867234E2,3.1486206E1,4.5503906E1,3.565924E1,1.9688171E1,0E0,0E0,0E0,0E0,0E0,0E0,0E0,0E0,0E0,0E0,0E0,0E0,0E0,0E0,0E0,0E0],"parents":[2147483647,0,0,1,1,2,2,3,3,4,4,5,5,6,6,7,7,8,8,9,9,10,10,11,11,12,12,13,13,14,14],"right_children":[2,4,6,8,10,12,14,16,18,20,22,24,26,28,30,-1,-1,-1,-1,-1,-1,-1,-1,-1,-1,-1,-1,-1,-1,-1,-1],"split_conditions":[1E0,2.75E0,3.712121E0,4.6E1,6.1E1,4.2E1,5E1,2.9E1,6.3E1,1.34E2,6.9E1,2.7E1,2.1666667E0,5.3962264E0,6.2E1,-3.4628887E-2,-6.1183255E-3,6.7182365E-3,2.4282657E-2,-1.5578071E-2,-3.51146E-2,-2.693148E-3,2.0660602E-2,7.3130587E-3,3.2747064E-2,3.9475378E-2,4.7769777E-2,2.195089E-2,6.030457E-3,2.780595E-2,4.0309954E-2],"split_indices":[18,26,26,0,0,0,0,0,0,2,0,0,24,26,0,0,0,0,0,0,0,0,0,0,0,0,0,0,0,0,0],"split_type":[0,0,0,0,0,0,0,0,0,0,0,0,0,0,0,0,0,0,0,0,0,0,0,0,0,0,0,0,0,0,0],"sum_hessian":[1.0245707E5,8.896456E4,1.3492508E4,4.381195E4,4.5152613E4,1.0164459E4,3.3280488E3,1.5110129E4,2.870182E4,3.6730293E4,8.422318E3,2.2595854E3,7.9048735E3,1.6141077E3,1.7139412E3,1.2644418E3,1.3845687E4,2.1839314E4,6.862507E3,2.8972793E4,7.7575E3,5.96335E3,2.4589683E3,1.4593987E2,2.1136458E3,3.0242915E3,4.880582E3,1.0452173E3,5.688903E2,1.1338679E3,5.800732E2],"tree_param":{"num_deleted":"0","num_feature":"39","num_nodes":"31","size_leaf_vector":"1"}},{"base_weights":[2.050123E-3,-1.06688514E-1,7.312229E-1,7.1227506E-2,-3.0148417E-1,8.003466E-1,4.6966842E-1,-4.0684573E-2,2.2580588E-1,-2.1105467E-1,-5.7491684E-1,6.9860345E-1,8.6871463E-1,5.1347286E-1,4.4305786E-2,-1.1132794E-2,1.7038566E-3,3.4342047E-3,1.5259308E-2,-1.5551287E-2,-2.9579073E-3,-2.324383E-2,-3.9346155E-2,3.040085E-2,3.898102E-2,4.7263373E-2,3.9813895E-2,2.1325158E-2,3.2020085E-2,-1.3724595E-2,1.2324391E-2],"categories":[],"categories_nodes":[],"categories_segments":[],"categories_sizes":[],"default_left":[0,0,0,0,0,0,0,0,0,0,0,0,0,0,0,0,0,0,0,0,0,0,0,0,0,0,0,0,0,0,0],"id":12,"left_children":[1,3,5,7,9,11,13,15,17,19,21,23,25,27,29,-1,-1,-1,-1,-1,-1,-1,-1,-1,-1,-1,-1,-1,-1,-1,-1],"loss_changes":[8.11314E3,3.0858877E3,2.3546973E2,8.0532227E2,1.0481431E3,6.718408E1,5.002008E1,3.726146E2,2.492622E2,4.9463794E2,2.403164E2,2.6594482E1,2.8183594E1,2.3925598E1,1.7545813E1,0E0,0E0,0E0,0E0,0E0,0E0,0E0,0E0,0E0,0E0,0E0,0E0,0E0,0E0,0E0,0E0],"parents":[2147483647,0,0,1,1,2,2,3,3,4,4,5,5,6,6,7,7,8,8,9,9,10,10,11,11,12,12,13,13,14,14],"right_children":[2,4,6,8,10,12,14,16,18,20,22,24,26,28,30,-1,-1,-1,-1,-1,-1,-1,-1,-1,-1,-1,-1,-1,-1,-1,-1],"split_conditions":[1E0,2.8621907E0,3.9495797E0,2.4444444E0,5.1046023E0,2.1864407E0,9E0,1.1E2,1.02E2,2.375E0,7.66187E0,1.16E2,5.6E1,1.27E2,1.6607143E0,-1.1132794E-2,1.7038566E-3,3.4342047E-3,1.5259308E-2,-1.5551287E-2,-2.9579073E-3,-2.324383E-2,-3.9346155E-2,3.040085E-2,3.898102E-2,4.7263373E-2,3.9813895E-2,2.1325158E-2,3.2020085E-2,-1.3724595E-2,1.2324391E-2],"split_indices":[18,26,26,24,26,24,26,8,13,24,26,8,2,14,23,0,0,0,0,0,0,0,0,0,0,0,0,0,0,0,0],"split_type":[0,0,0,0,0,0,0,0,0,0,0,0,0,0,0,0,0,0,0,0,0,0,0,0,0,0,0,0,0,0,0],"sum_hessian":[1.0229494E5,8.901621E4,1.3278729E4,4.6514863E4,4.2501348E4,1.0491482E4,2.787246E3,2.6968492E4,1.954637E4,3.1948979E4,1.0552367E4,4.239874E3,6.251608E3,2.519575E3,2.6767105E2,7.831479E3,1.9137014E4,6.726892E3,1.2819478E4,1.9036586E4,1.2912395E4,7.1116655E3,3.4407012E3,2.164476E3,2.0753982E3,2.7166152E3,3.534993E3,1.5619534E3,9.5762164E2,9.7441536E1,1.702295E2],"tree_param":{"num_deleted":"0","num_feature":"39","num_nodes":"31","size_leaf_vector":"1"}},{"base_weights":[-1.4090078E-3,1.755035E-1,-1.8160419E-1,2.6982065E-2,2.7375898E-1,-9.989459E-2,-4.4690835E-1,-2.2186272E-1,8.305669E-2,2.0722124E-1,4.4923207E-1,-1.5537313E-1,1.2305759E-1,-3.6164457E-1,-6.576318E-1,-2.4896925E-2,-8.365355E-3,1.5574181E-2,2.0007344E-3,2.1982228E-2,8.192193E-3,1.9548984E-2,2.9718325E-2,-1.0072151E-2,3.5826499E-3,1.2304873E-3,1.1749356E-2,-9.927639E-3,-2.3732288E-2,-1.9277798E-2,-3.582101E-2],"categories":[],"categories_nodes":[],"categories_segments":[],"categories_sizes":[],"default_left":[0,0,0,0,0,0,0,0,0,0,0,0,0,0,0,0,0,0,0,0,0,0,0,0,0,0,0,0,0,0,0],"id":13,"left_children":[1,3,5,7,9,11,13,15,17,19,21,23,25,27,29,-1,-1,-1,-1,-1,-1,-1,-1,-1,-1,-1,-1,-1,-1,-1,-1],"loss_changes":[3.2518005E3,7.49944E2,1.0937611E3,2.8565222E2,3.5913623E2,4.7822165E2,2.0998682E2,5.366246E1,1.6398676E2,2.2071991E2,6.659375E1,3.3676233E2,8.511409E1,1.5762756E2,5.5332275E1,0E0,0E0,0E0,0E0,0E0,0E0,0E0,0E0,0E0,0E0,0E0,0E0,0E0,0E0,0E0,0E0],"parents":[2147483647,0,0,1,1,2,2,3,3,4,4,5,5,6,6,7,7,8,8,9,9,10,10,11,11,12,12,13,13,14,14],"right_children":[2,4,6,8,10,12,14,16,18,20,22,24,26,28,30,-1,-1,-1,-1,-1,-1,-1,-1,-1,-1,-1,-1,-1,-1,-1,-1],"split_conditions":[2.7777777E0,1.7959183E0,5.1046023E0,1.01E2,1.41E2,1.41E2,8.0188675E0,1.64E2,3.3E1,3.3E1,1.55E2,1.49E2,1.37E2,6.6E1,5.8E1,-2.4896925E-2,-8.365355E-3,1.5574181E-2,2.0007344E-3,2.1982228E-2,8.192193E-3,1.9548984E-2,2.9718325E-2,-1.0072151E-2,3.5826499E-3,1.2304873E-3,1.1749356E-2,-9.927639E-3,-2.3732288E-2,-1.9277798E-2,-3.582101E-2],"split_indices":[26,23,26,14,14,14,26,11,2,2,22,22,22,10,10,0,0,0,0,0,0,0,0,0,0,0,0,0,0,0,0],"split_type":[0,0,0,0,0,0,0,0,0,0,0,0,0,0,0,0,0,0,0,0,0,0,0,0,0,0,0,0,0,0,0],"sum_hessian":[1.0200309E5,5.146079E4,5.0542305E4,2.0503615E4,3.0957172E4,3.8651977E4,1.1890328E4,3.75899E3,1.6744625E4,2.2461174E4,8.495998E3,3.096288E4,7.6890977E3,8.478074E3,3.4122534E3,5.8854694E2,3.1704429E3,2.6000974E3,1.4144528E4,3.3823354E3,1.907884E4,6.233536E3,2.262462E3,2.5609135E4,5.3537456E3,4.1440415E3,3.5450562E3,3.5732095E3,4.9048647E3,6.725718E2,2.7396816E3],"tree_param":{"num_deleted":"0","num_feature":"39","num_nodes":"31","size_leaf_vector":"1"}},{"base_weights":[2.8494062E-4,-1.0326087E-1,7.103678E-1,-3.4684566E-1,3.1857397E-2,5.829023E-1,8.2202053E-1,-8.9392424E-1,-3.093102E-1,-2.1177452E-2,4.7289824E-1,3.9784926E-1,6.596055E-1,7.560191E-1,9.261449E-1,-5.4996207E-2,-3.8924087E-2,-2.19769E-2,-8.425292E-3,-6.3272766E-3,7.420274E-3,1.5723007E-2,3.3634078E-2,1.0360222E-2,2.4858324E-2,5.780149E-3,3.3503413E-2,3.49316E-2,4.278461E-2,4.362127E-2,5.288714E-2],"categories":[],"categories_nodes":[],"categories_segments":[],"categories_sizes":[],"default_left":[0,0,0,0,0,0,0,0,0,0,0,0,0,0,0,0,0,0,0,0,0,0,0,0,0,0,0,0,0,0,0],"id":14,"left_children":[1,3,5,7,9,11,13,15,17,19,21,23,25,27,29,-1,-1,-1,-1,-1,-1,-1,-1,-1,-1,-1,-1,-1,-1,-1,-1],"loss_changes":[7.513246E3,2.935305E3,1.7993457E2,6.49052E2,1.3426389E3,8.262378E1,4.1273926E1,4.0656372E1,5.5352905E2,9.2994275E2,1.9358337E2,3.2640045E1,3.4385864E1,1.7666992E1,1.0047607E1,0E0,0E0,0E0,0E0,0E0,0E0,0E0,0E0,0E0,0E0,0E0,0E0,0E0,0E0,0E0,0E0],"parents":[2147483647,0,0,1,1,2,2,3,3,4,4,5,5,6,6,7,7,8,8,9,9,10,10,11,11,12,12,13,13,14,14],"right_children":[2,4,6,8,10,12,14,16,18,20,22,24,26,28,30,-1,-1,-1,-1,-1,-1,-1,-1,-1,-1,-1,-1,-1,-1,-1,-1],"split_conditions":[1E0,4.6E1,5E1,2.8E1,6.8E1,2.42E1,6.1E1,2.4E1,2.58E1,2.4444444E0,7.2E1,3.9E1,2.7E1,1.35E2,2.7826087E0,-5.4996207E-2,-3.8924087E-2,-2.19769E-2,-8.425292E-3,-6.3272766E-3,7.420274E-3,1.5723007E-2,3.3634078E-2,1.0360222E-2,2.4858324E-2,5.780149E-3,3.3503413E-2,3.49316E-2,4.278461E-2,4.362127E-2,5.288714E-2],"split_indices":[18,0,0,0,0,6,0,0,6,24,0,0,0,14,24,0,0,0,0,0,0,0,0,0,0,0,0,0,0,0,0],"split_type":[0,0,0,0,0,0,0,0,0,0,0,0,0,0,0,0,0,0,0,0,0,0,0,0,0,0,0,0,0,0,0],"sum_hessian":[1.0215505E5,8.915068E4,1.3004365E4,3.1816914E4,5.733377E4,6.088579E3,6.915786E3,2.0359261E3,2.9780986E4,5.1173137E4,6.1606304E3,1.7985248E3,4.290054E3,4.256474E3,2.6593123E3,6.7247473E2,1.3634514E3,1.5182398E4,1.4598588E4,3.1542795E4,1.9630342E4,3.5123564E3,2.648274E3,6.4853125E2,1.1499935E3,1.2867233E2,4.161382E3,2.8927805E3,1.3636936E3,2.0184983E3,6.4081384E2],"tree_param":{"num_deleted":"0","num_feature":"39","num_nodes":"31","size_leaf_vector":"1"}},{"base_weights":[2.0422703E-3,-9.578531E-2,6.803409E-1,-3.2611802E-1,3.2417495E-2,7.3479754E-1,3.5531828E-1,-1.2652148E-1,-4.6259463E-1,2.220333E-1,-1.142109E-1,5.45347E-1,7.899622E-1,5.3606916E-2,4.4748944E-1,-3.2714676E-2,-4.350165E-3,-4.5685977E-2,-2.0934429E-2,7.1529965E-3,2.3535162E-2,-8.008583E-3,1.9225001E-2,3.4588434E-2,2.2000177E-2,4.2722337E-2,3.3908777E-2,8.778852E-3,-1.1674675E-2,1.917401E-2,3.7287265E-2],"categories":[],"categories_nodes":[],"categories_segments":[],"categories_sizes":[],"default_left":[0,0,0,0,0,0,0,0,0,0,0,0,0,0,0,0,0,0,0,0,0,0,0,0,0,0,0,0,0,0,0],"id":15,"left_children":[1,3,5,7,9,11,13,15,17,19,21,23,25,27,29,-1,-1,-1,-1,-1,-1,-1,-1,-1,-1,-1,-1,-1,-1,-1,-1],"loss_changes":[6.754086E3,2.6268994E3,2.231709E2,8.643638E2,1.5884622E3,1.09865234E2,4.975682E1,2.6485336E2,3.4561133E2,4.874038E2,7.631851E2,3.4435913E1,5.8740723E1,1.5621664E1,2.2007172E1,0E0,0E0,0E0,0E0,0E0,0E0,0E0,0E0,0E0,0E0,0E0,0E0,0E0,0E0,0E0,0E0],"parents":[2147483647,0,0,1,1,2,2,3,3,4,4,5,5,6,6,7,7,8,8,9,9,10,10,11,11,12,12,13,13,14,14],"right_children":[2,4,6,8,10,12,14,16,18,20,22,24,26,28,30,-1,-1,-1,-1,-1,-1,-1,-1,-1,-1,-1,-1,-1,-1,-1,-1],"split_conditions":[1E0,4.6E1,4.5454545E0,2.5E0,2.5357141E0,4.2E1,4.1E1,2.8E1,2.9E1,6.3E1,6.9E1,2.124542E0,2.6829267E0,7.0881224E0,6.5E1,-3.2714676E-2,-4.350165E-3,-4.5685977E-2,-2.0934429E-2,7.1529965E-3,2.3535162E-2,-8.008583E-3,1.9225001E-2,3.4588434E-2,2.2000177E-2,4.2722337E-2,3.3908777E-2,8.778852E-3,-1.1674675E-2,1.917401E-2,3.7287265E-2],"split_indices":[18,0,26,26,26,0,0,0,0,0,0,26,26,26,0,0,0,0,0,0,0,0,0,0,0,0,0,0,0,0,0],"split_type":[0,0,0,0,0,0,0,0,0,0,0,0,0,0,0,0,0,0,0,0,0,0,0,0,0,0,0,0,0,0,0],"sum_hessian":[1.0175355E5,8.892404E4,1.2829509E4,3.1806047E4,5.711799E4,1.0978636E4,1.8508735E3,1.2926929E4,1.8879117E4,2.4917879E4,3.2200111E4,2.4915999E3,8.487035E3,4.4207742E2,1.4087961E3,8.703495E2,1.2056579E4,1.523155E3,1.7355963E4,1.906008E4,5.857798E3,2.9434861E4,2.7652495E3,9.835728E2,1.508027E3,5.051277E3,3.4357588E3,3.182957E2,1.2378176E2,1.1847157E3,2.2408043E2],"tree_param":{"num_deleted":"0","num_feature":"39","num_nodes":"31","size_leaf_vector":"1"}},{"base_weights":[3.8307745E-3,-8.970965E-2,6.622868E-1,-2.7313995E-1,6.354199E-2,7.4096185E-1,4.340276E-1,-1.7853455E-1,-5.498642E-1,1.5720004E-1,-2.0370136E-1,5.87808E-1,8.172368E-1,1.8640223E-1,5.0466275E-1,-2.2404863E-2,-5.8661927E-3,-5.5141408E-2,-2.565768E-2,5.226598E-3,2.5445433E-2,-1.2997809E-2,1.133242E-2,-0E0,3.0529577E-2,3.9086886E-2,5.10178E-2,1.5685618E-2,-0E0,2.8778099E-2,1.7490238E-2],"categories":[],"categories_nodes":[],"categories_segments":[],"categories_sizes":[],"default_left":[0,0,0,0,0,0,0,0,0,0,0,0,0,0,0,0,0,0,0,0,0,0,0,0,0,0,0,0,0,0,0],"id":16,"left_children":[1,3,5,7,9,11,13,15,17,19,21,23,25,27,29,-1,-1,-1,-1,-1,-1,-1,-1,-1,-1,-1,-1,-1,-1,-1,-1],"loss_changes":[6.253415E3,2.4988884E3,2.2255518E2,1.0566953E3,1.2114675E3,1.0442529E2,5.441504E1,4.9456097E2,1.8218506E2,6.589597E2,3.169065E2,5.1832886E1,3.1634766E1,1.8565598E1,2.5592285E1,0E0,0E0,0E0,0E0,0E0,0E0,0E0,0E0,0E0,0E0,0E0,0E0,0E0,0E0,0E0,0E0],"parents":[2147483647,0,0,1,1,2,2,3,3,4,4,5,5,6,6,7,7,8,8,9,9,10,10,11,11,12,12,13,13,14,14],"right_children":[2,4,6,8,10,12,14,16,18,20,22,24,26,28,30,-1,-1,-1,-1,-1,-1,-1,-1,-1,-1,-1,-1,-1,-1,-1,-1],"split_conditions":[1E0,4.9E1,3.6885245E0,3.9224136E0,3.7554584E0,4.6E1,4.1E1,3.4E1,2.8E1,6.8E1,6.8E1,2.7E1,6.8E1,5.2401743E0,1.34E2,-2.2404863E-2,-5.8661927E-3,-5.5141408E-2,-2.565768E-2,5.226598E-3,2.5445433E-2,-1.2997809E-2,1.133242E-2,-0E0,3.0529577E-2,3.9086886E-2,5.10178E-2,1.5685618E-2,-0E0,2.8778099E-2,1.7490238E-2],"split_indices":[18,0,26,26,26,0,0,0,0,0,0,0,0,26,2,0,0,0,0,0,0,0,0,0,0,0,0,0,0,0,0],"split_type":[0,0,0,0,0,0,0,0,0,0,0,0,0,0,0,0,0,0,0,0,0,0,0,0,0,0,0,0,0,0,0],"sum_hessian":[1.01496E5,8.8866945E4,1.2629054E4,4.0460582E4,4.8406363E4,9.379562E3,3.2494917E3,3.0162344E4,1.0298237E4,3.5854066E4,1.2552296E4,3.1352686E3,6.2442935E3,7.325332E2,2.5169585E3,5.438403E3,2.4723941E4,5.561372E2,9.742101E3,3.130658E4,4.5474863E3,1.1065746E4,1.4865502E3,1.3986958E2,2.995399E3,5.5060864E3,7.382069E2,4.3957578E2,2.9295746E2,1.6644564E3,8.5250195E2],"tree_param":{"num_deleted":"0","num_feature":"39","num_nodes":"31","size_leaf_vector":"1"}},{"base_weights":[6.0107507E-4,-8.779479E-2,6.370992E-1,-2.1248937E-3,-3.7339902E-1,7.0550436E-1,3.8406214E-1,-1.600913E-1,8.4764466E-2,-3.088362E-1,-6.9253373E-1,5.985101E-1,7.7817714E-1,4.719551E-1,2.3627786E-1,-1.6053708E-2,-4.744199E-3,1.0135118E-2,-7.0762105E-4,-2.110082E-2,-1.1007525E-2,-3.6810596E-2,-2.2467148E-2,2.5290685E-2,3.41926E-2,4.2578626E-2,3.5125263E-2,2.1019783E-2,3.526964E-2,-8.181319E-4,1.7285392E-2],"categories":[],"categories_nodes":[],"categories_segments":[],"categories_sizes":[],"default_left":[0,0,0,0,0,0,0,0,0,0,0,0,0,0,0,0,0,0,0,0,0,0,0,0,0,0,0,0,0,0,0],"id":17,"left_children":[1,3,5,7,9,11,13,15,17,19,21,23,25,27,29,-1,-1,-1,-1,-1,-1,-1,-1,-1,-1,-1,-1,-1,-1,-1,-1],"loss_changes":[5.6993726E3,2.1741519E3,2.0989648E2,9.391658E2,4.189392E2,7.047656E1,3.1799622E1,2.54578E2,5.2317664E2,1.7065723E2,3.6630493E1,2.7458862E1,2.6583984E1,1.4785339E1,2.9543476E1,0E0,0E0,0E0,0E0,0E0,0E0,0E0,0E0,0E0,0E0,0E0,0E0,0E0,0E0,0E0,0E0],"parents":[2147483647,0,0,1,1,2,2,3,3,4,4,5,5,6,6,7,7,8,8,9,9,10,10,11,11,12,12,13,13,14,14],"right_children":[2,4,6,8,10,12,14,16,18,20,22,24,26,28,30,-1,-1,-1,-1,-1,-1,-1,-1,-1,-1,-1,-1,-1,-1,-1,-1],"split_conditions":[1E0,3.9999998E0,3.973799E0,2.090909E0,7.66187E0,2.1864407E0,5.5603447E0,1.09E2,2.2142856E0,2.0689654E0,1.48E2,1.16E2,2.162162E0,1.21E2,9E1,-1.6053708E-2,-4.744199E-3,1.0135118E-2,-7.0762105E-4,-2.110082E-2,-1.1007525E-2,-3.6810596E-2,-2.2467148E-2,2.5290685E-2,3.41926E-2,4.2578626E-2,3.5125263E-2,2.1019783E-2,3.526964E-2,-8.181319E-4,1.7285392E-2],"split_indices":[18,26,26,24,26,24,26,8,26,24,22,8,26,13,13,0,0,0,0,0,0,0,0,0,0,0,0,0,0,0,0],"split_type":[0,0,0,0,0,0,0,0,0,0,0,0,0,0,0,0,0,0,0,0,0,0,0,0,0,0,0,0,0,0,0],"sum_hessian":[1.0126246E5,8.891001E4,1.2352456E4,6.840419E4,2.050582E4,9.712113E3,2.6403433E3,2.4287648E4,4.411654E4,1.7065496E4,3.4403245E3,3.95012E3,5.7619927E3,1.640149E3,1.00019415E3,6.846424E3,1.7441225E4,1.9998842E4,2.4117695E4,7.2674634E3,9.798033E3,2.8360234E3,6.0430115E2,2.0227047E3,1.9274155E3,2.6543535E3,3.1076392E3,1.379026E3,2.61123E2,2.983887E2,7.018055E2],"tree_param":{"num_deleted":"0","num_feature":"39","num_nodes":"31","size_leaf_vector":"1"}},{"base_weights":[8.0078177E-4,-1.2293967E-1,1.9772996E-1,-3.9527927E-2,-3.9348042E-1,3.443101E-1,4.974516E-2,-3.3729553E-1,5.598295E-3,-3.256341E-1,-6.269181E-1,3.0407536E-1,7.070962E-1,5.141808E-3,5.8721435E-1,-3.5027675E-2,-1.3175091E-2,6.047917E-3,-4.349208E-3,-5.1756427E-2,-1.5034952E-2,-1.6146358E-2,-3.417235E-2,4.3837726E-3,1.7836234E-2,2.5431007E-2,3.7434336E-2,3.324178E-3,-1.5002416E-2,3.102421E-2,5.316162E-3],"categories":[],"categories_nodes":[],"categories_segments":[],"categories_sizes":[],"default_left":[0,0,0,0,0,0,0,0,0,0,0,0,0,0,0,0,0,0,0,0,0,0,0,0,0,0,0,0,0,0,0],"id":18,"left_children":[1,3,5,7,9,11,13,15,17,19,21,23,25,27,29,-1,-1,-1,-1,-1,-1,-1,-1,-1,-1,-1,-1,-1,-1,-1,-1],"loss_changes":[2.4650176E3,1.3999974E3,8.455105E2,6.3913776E2,2.2823535E2,2.8250684E2,4.640042E2,1.6197473E2,4.4758505E2,1.7822632E2,5.7795044E1,2.1003784E2,1.3444153E1,3.4108896E2,2.4754242E1,0E0,0E0,0E0,0E0,0E0,0E0,0E0,0E0,0E0,0E0,0E0,0E0,0E0,0E0,0E0,0E0],"parents":[2147483647,0,0,1,1,2,2,3,3,4,4,5,5,6,6,7,7,8,8,9,9,10,10,11,11,12,12,13,13,14,14],"right_children":[2,4,6,8,10,12,14,16,18,20,22,24,26,28,30,-1,-1,-1,-1,-1,-1,-1,-1,-1,-1,-1,-1,-1,-1,-1,-1],"split_conditions":[5.4E1,3.9999998E0,2.7376425E0,3.4E1,1.69E2,7.1E1,7.2E1,2.6E1,2.24E0,2.7E1,5.8E1,1.06E2,7.2E1,1.41E2,7.352941E0,-3.5027675E-2,-1.3175091E-2,6.047917E-3,-4.349208E-3,-5.1756427E-2,-1.5034952E-2,-1.6146358E-2,-3.417235E-2,4.3837726E-3,1.7836234E-2,2.5431007E-2,3.7434336E-2,3.324178E-3,-1.5002416E-2,3.102421E-2,5.316162E-3],"split_indices":[0,26,26,0,2,0,0,0,26,0,10,14,0,2,26,0,0,0,0,0,0,0,0,0,0,0,0,0,0,0,0],"split_type":[0,0,0,0,0,0,0,0,0,0,0,0,0,0,0,0,0,0,0,0,0,0,0,0,0,0,0,0,0,0,0],"sum_hessian":[1.01145625E5,6.2104887E4,3.904074E4,4.747967E4,1.4625214E4,1.960135E4,1.9439387E4,6.257908E3,4.122176E4,1.1344437E4,3.2807773E3,1.765416E4,1.9471893E3,1.7956322E4,1.4830662E3,1.00862103E3,5.249287E3,1.8360447E4,2.2861314E4,3.3873584E2,1.1005701E4,5.709045E2,2.7098728E3,3.6296277E3,1.4024533E4,3.9968472E2,1.5475046E3,1.495889E4,2.9974316E3,1.3665458E3,1.16520386E2],"tree_param":{"num_deleted":"0","num_feature":"39","num_nodes":"31","size_leaf_vector":"1"}},{"base_weights":[2.2530196E-4,-8.339237E-2,6.0818595E-1,6.074676E-2,-2.2576174E-1,6.753321E-1,3.5941812E-1,-8.4583774E-2,1.4913867E-1,-1.5617599E-1,-4.507074E-1,6.016242E-1,7.742724E-1,4.420747E-1,2.2408211E-1,-1.1036215E-2,-6.583962E-4,5.272958E-3,1.807799E-2,-1.6413102E-2,-4.7379504E-3,-1.8298639E-2,-3.224236E-2,3.4086116E-2,2.6200587E-2,4.2728018E-2,3.51418E-2,1.1055277E-2,2.4669217E-2,1.8104162E-2,7.3306664E-4],"categories":[],"categories_nodes":[],"categories_segments":[],"categories_sizes":[],"default_left":[0,0,0,0,0,0,0,0,0,0,0,0,0,0,0,0,0,0,0,0,0,0,0,0,0,0,0,0,0,0,0],"id":19,"left_children":[1,3,5,7,9,11,13,15,17,19,21,23,25,27,29,-1,-1,-1,-1,-1,-1,-1,-1,-1,-1,-1,-1,-1,-1,-1,-1],"loss_changes":[5.133743E3,1.8216035E3,2.0024805E2,5.6654034E2,6.9687305E2,6.499365E1,2.6818176E1,1.6305142E2,2.5128601E2,3.6011865E2,1.6811768E2,3.0297974E1,1.7566406E1,1.6891357E1,2.8373085E1,0E0,0E0,0E0,0E0,0E0,0E0,0E0,0E0,0E0,0E0,0E0,0E0,0E0,0E0,0E0,0E0],"parents":[2147483647,0,0,1,1,2,2,3,3,4,4,5,5,6,6,7,7,8,8,9,9,10,10,11,11,12,12,13,13,14,14],"right_children":[2,4,6,8,10,12,14,16,18,20,22,24,26,28,30,-1,-1,-1,-1,-1,-1,-1,-1,-1,-1,-1,-1,-1,-1,-1,-1],"split_conditions":[1E0,2.7777777E0,3.9999998E0,2.56E1,5.1046023E0,2.68E1,5.5603447E0,1.22E2,1.55E2,1.06E2,1.94E2,5.6E1,5.7E1,1.06E2,6.7E1,-1.1036215E-2,-6.583962E-4,5.272958E-3,1.807799E-2,-1.6413102E-2,-4.7379504E-3,-1.8298639E-2,-3.224236E-2,3.4086116E-2,2.6200587E-2,4.2728018E-2,3.51418E-2,1.1055277E-2,2.4669217E-2,1.8104162E-2,7.3306664E-4],"split_indices":[18,26,26,6,26,6,26,22,22,14,2,2,2,8,10,0,0,0,0,0,0,0,0,0,0,0,0,0,0,0,0],"split_type":[0,0,0,0,0,0,0,0,0,0,0,0,0,0,0,0,0,0,0,0,0,0,0,0,0,0,0,0,0,0,0],"sum_hessian":[1.0094908E5,8.873906E4,1.2210017E4,4.4083703E4,4.465536E4,9.60303E3,2.6069863E3,1.6657447E4,2.7426256E4,3.4117668E4,1.053769E4,5.5259624E3,4.0770674E3,1.6017792E3,1.00520715E3,5.6595015E3,1.0997945E4,2.2892322E4,4.5339346E3,8.773204E3,2.5344465E4,7.487705E3,3.0499846E3,2.5240647E3,3.001898E3,1.7246638E3,2.3524036E3,3.3615356E2,1.2656256E3,5.9056525E2,4.1464188E2],"tree_param":{"num_deleted":"0","num_feature":"39","num_nodes":"31","size_leaf_vector":"1"}},{"base_weights":[1.0217711E-3,-7.9032674E-2,5.9210306E-1,-1.6409343E-1,1.9324291E-1,6.850585E-1,4.153214E-1,-2.1945206E-2,-2.958683E-1,1.3657582E-1,6.0223967E-1,5.760877E-1,7.787631E-1,2.8468847E-1,5.3941005E-1,-6.69001E-3,4.807689E-3,-2.2892235E-2,-1.0581528E-2,1.5631018E-2,8.887621E-4,3.1238321E-2,5.928644E-3,2.1374669E-2,3.319989E-2,3.5514843E-2,4.3552194E-2,1.8248092E-2,3.4272429E-3,2.992773E-2,1.8025968E-2],"categories":[],"categories_nodes":[],"categories_segments":[],"categories_sizes":[],"default_left":[0,0,0,0,0,0,0,0,0,0,0,0,0,0,0,0,0,0,0,0,0,0,0,0,0,0,0,0,0,0,0],"id":20,"left_children":[1,3,5,7,9,11,13,15,17,19,21,23,25,27,29,-1,-1,-1,-1,-1,-1,-1,-1,-1,-1,-1,-1,-1,-1,-1,-1],"loss_changes":[4.772714E3,2.0563936E3,1.9374512E2,1.2664248E3,4.8707312E2,7.5418945E1,6.45155E1,4.374365E2,4.7757788E2,3.9227936E2,3.1578552E1,4.558252E1,2.033545E1,3.513568E1,2.0415161E1,0E0,0E0,0E0,0E0,0E0,0E0,0E0,0E0,0E0,0E0,0E0,0E0,0E0,0E0,0E0,0E0],"parents":[2147483647,0,0,1,1,2,2,3,3,4,4,5,5,6,6,7,7,8,8,9,9,10,10,11,11,12,12,13,13,14,14],"right_children":[2,4,6,8,10,12,14,16,18,20,22,24,26,28,30,-1,-1,-1,-1,-1,-1,-1,-1,-1,-1,-1,-1,-1,-1,-1,-1],"split_conditions":[1E0,5.9E1,3.2806323E0,2.7376425E0,7.2E1,5E1,5E1,2.65E1,4.2E1,2.3999999E0,1.6E2,2.173913E0,6.1E1,5.3138075E0,1.32E2,-6.69001E-3,4.807689E-3,-2.2892235E-2,-1.0581528E-2,1.5631018E-2,8.887621E-4,3.1238321E-2,5.928644E-3,2.1374669E-2,3.319989E-2,3.5514843E-2,4.3552194E-2,1.8248092E-2,3.4272429E-3,2.992773E-2,1.8025968E-2],"split_indices":[18,0,26,26,0,0,0,6,0,26,2,24,0,26,2,0,0,0,0,0,0,0,0,0,0,0,0,0,0,0,0],"split_type":[0,0,0,0,0,0,0,0,0,0,0,0,0,0,0,0,0,0,0,0,0,0,0,0,0,0,0,0,0,0,0],"sum_hessian":[1.0082464E5,8.879351E4,1.2031136E4,6.76668E4,2.1126707E4,7.870993E3,4.160142E3,3.2565049E4,3.5101746E4,1.8563965E4,2.5627434E3,3.658304E3,4.2126895E3,2.0412152E3,2.1189268E3,1.6714156E4,1.5850894E4,1.1652202E4,2.3449545E4,7.3981055E3,1.1165858E4,2.4170312E3,1.4571217E2,1.4480618E3,2.2102422E3,2.6087397E3,1.6039496E3,1.4606915E3,5.805238E2,1.5379298E3,5.8099695E2],"tree_param":{"num_deleted":"0","num_feature":"39","num_nodes":"31","size_leaf_vector":"1"}},{"base_weights":[7.24994E-4,-7.56246E-2,5.747885E-1,-2.2541843E-1,6.701243E-2,4.4254076E-1,6.793913E-1,-8.1691206E-2,-3.3042547E-1,1.7573506E-2,3.955537E-1,2.5234625E-1,5.2306473E-1,7.32703E-1,4.6049878E-1,-8.215728E-3,5.576584E-3,-4.346878E-2,-1.5093788E-2,6.695412E-3,-5.959311E-3,1.3135027E-2,2.8229086E-2,2.7953343E-2,9.010854E-3,2.7787773E-2,8.783379E-3,3.467479E-2,4.6908807E-2,1.7911443E-2,3.0966718E-2],"categories":[],"categories_nodes":[],"categories_segments":[],"categories_sizes":[],"default_left":[0,0,0,0,0,0,0,0,0,0,0,0,0,0,0,0,0,0,0,0,0,0,0,0,0,0,0,0,0,0,0],"id":21,"left_children":[1,3,5,7,9,11,13,15,17,19,21,23,25,27,29,-1,-1,-1,-1,-1,-1,-1,-1,-1,-1,-1,-1,-1,-1,-1,-1],"loss_changes":[4.4066807E3,1.89572E3,1.5921826E2,6.5170996E2,7.363886E2,7.733496E1,7.23938E1,2.9825308E2,3.5168604E2,6.3882404E2,1.3167621E2,3.189183E1,4.4560303E1,3.1585205E1,1.766455E1,0E0,0E0,0E0,0E0,0E0,0E0,0E0,0E0,0E0,0E0,0E0,0E0,0E0,0E0,0E0,0E0],"parents":[2147483647,0,0,1,1,2,2,3,3,4,4,5,5,6,6,7,7,8,8,9,9,10,10,11,11,12,12,13,13,14,14],"right_children":[2,4,6,8,10,12,14,16,18,20,22,24,26,28,30,-1,-1,-1,-1,-1,-1,-1,-1,-1,-1,-1,-1,-1,-1,-1,-1],"split_conditions":[1E0,5E1,4.9E1,6.6E1,6.8E1,2.42E1,1.03E2,2.73E1,2.8E1,7.6E1,7.2E1,4.4E1,1.28E2,6.8E1,6.1E1,-8.215728E-3,5.576584E-3,-4.346878E-2,-1.5093788E-2,6.695412E-3,-5.959311E-3,1.3135027E-2,2.8229086E-2,2.7953343E-2,9.010854E-3,2.7787773E-2,8.783379E-3,3.467479E-2,4.6908807E-2,1.7911443E-2,3.0966718E-2],"split_indices":[18,0,0,2,0,6,2,6,0,2,0,2,2,0,0,0,0,0,0,0,0,0,0,0,0,0,0,0,0,0,0],"split_type":[0,0,0,0,0,0,0,0,0,0,0,0,0,0,0,0,0,0,0,0,0,0,0,0,0,0,0,0,0,0,0],"sum_hessian":[1.0050095E5,8.869879E4,1.1802163E4,4.3275527E4,4.542326E4,5.2284126E3,6.57375E3,1.8283742E4,2.4991785E4,3.949172E4,5.9315435E3,1.5686927E3,3.65972E3,5.2723486E3,1.3014015E3,1.2775717E4,5.508026E3,1.1321422E3,2.3859643E4,2.133055E4,1.8161168E4,3.396521E3,2.5350227E3,2.8029987E2,1.288393E3,3.29474E3,3.6497986E2,4.572161E3,7.001878E2,8.247219E2,4.766795E2],"tree_param":{"num_deleted":"0","num_feature":"39","num_nodes":"31","size_leaf_vector":"1"}},{"base_weights":[-1.6674858E-3,-7.540388E-2,5.606579E-1,-1.423789E-1,2.1057074E-1,6.743851E-1,4.21914E-1,-7.67365E-2,-3.8467667E-1,1.5165155E-1,5.450118E-1,5.364272E-1,7.4444366E-1,3.508588E-1,6.4182746E-1,-8.315504E-3,2.4935682E-3,-1.596396E-2,-2.9819483E-2,1.0247786E-2,-8.7256925E-3,2.880444E-2,6.5493193E-3,1.909582E-2,3.1436738E-2,3.4028564E-2,4.150146E-2,2.1094814E-2,5.670315E-3,2.9145628E-2,4.4100147E-2],"categories":[],"categories_nodes":[],"categories_segments":[],"categories_sizes":[],"default_left":[0,0,0,0,0,0,0,0,0,0,0,0,0,0,0,0,0,0,0,0,0,0,0,0,0,0,0,0,0,0,0],"id":22,"left_children":[1,3,5,7,9,11,13,15,17,19,21,23,25,27,29,-1,-1,-1,-1,-1,-1,-1,-1,-1,-1,-1,-1,-1,-1,-1,-1],"loss_changes":[4.157531E3,1.698401E3,1.7944263E2,1.1414451E3,3.2898132E2,5.692163E1,7.84939E1,6.536773E2,2.0487451E2,2.578723E2,3.4605408E1,2.8280151E1,1.704004E1,6.8276306E1,1.1578247E1,0E0,0E0,0E0,0E0,0E0,0E0,0E0,0E0,0E0,0E0,0E0,0E0,0E0,0E0,0E0,0E0],"parents":[2147483647,0,0,1,1,2,2,3,3,4,4,5,5,6,6,7,7,8,8,9,9,10,10,11,11,12,12,13,13,14,14],"right_children":[2,4,6,8,10,12,14,16,18,20,22,24,26,28,30,-1,-1,-1,-1,-1,-1,-1,-1,-1,-1,-1,-1,-1,-1,-1,-1],"split_conditions":[1E0,6.1E1,2.8621907E0,4.143426E0,7.2E1,4.6E1,5.9E1,2.4130435E0,7.0881224E0,4.6666665E0,5.6521735E0,2.173913E0,5.9E1,5.1046023E0,7.1E1,-8.315504E-3,2.4935682E-3,-1.596396E-2,-2.9819483E-2,1.0247786E-2,-8.7256925E-3,2.880444E-2,6.5493193E-3,1.909582E-2,3.1436738E-2,3.4028564E-2,4.150146E-2,2.1094814E-2,5.670315E-3,2.9145628E-2,4.4100147E-2],"split_indices":[18,0,26,26,0,0,0,24,26,26,26,24,0,26,0,0,0,0,0,0,0,0,0,0,0,0,0,0,0,0,0],"split_type":[0,0,0,0,0,0,0,0,0,0,0,0,0,0,0,0,0,0,0,0,0,0,0,0,0,0,0,0,0,0,0],"sum_hessian":[1.0030749E5,8.8685125E4,1.1622364E4,7.1866414E4,1.6818717E4,6.3719277E3,5.2504365E3,5.6558793E4,1.530762E4,1.4309121E4,2.509596E3,2.1645547E3,4.207373E3,3.9814297E3,1.2690067E3,3.2976617E4,2.3582174E4,1.1881147E4,3.426472E3,1.2261883E4,2.0472389E3,2.3015361E3,2.0805975E2,8.6284296E2,1.3017118E3,2.605789E3,1.6015841E3,3.016408E3,9.650215E2,1.0544594E3,2.1454742E2],"tree_param":{"num_deleted":"0","num_feature":"39","num_nodes":"31","size_leaf_vector":"1"}},{"base_weights":[3.800284E-5,-6.8902396E-2,5.333517E-1,-2.4892858E-1,3.247003E-2,4.130862E-1,6.43042E-1,-1.7470162E-1,-4.302851E-1,2.0391037E-1,-5.0865296E-2,5.8642834E-1,3.2715815E-1,7.3101795E-1,5.2495E-1,-1.4717457E-2,-3.1256871E-3,-4.02738E-2,-1.9624801E-2,5.8757286E-3,1.8042376E-2,-5.2560037E-3,1.0682511E-2,2.171436E-2,3.462275E-2,-1.6115528E-2,1.7392533E-2,2.4900239E-2,3.761285E-2,2.2560744E-2,3.322887E-2],"categories":[],"categories_nodes":[],"categories_segments":[],"categories_sizes":[],"default_left":[0,0,0,0,0,0,0,0,0,0,0,0,0,0,0,0,0,0,0,0,0,0,0,0,0,0,0,0,0,0,0],"id":23,"left_children":[1,3,5,7,9,11,13,15,17,19,21,23,25,27,29,-1,-1,-1,-1,-1,-1,-1,-1,-1,-1,-1,-1,-1,-1,-1,-1],"loss_changes":[3.6862014E3,1.6201904E3,1.4760303E2,4.2837012E2,8.1145105E2,7.853223E1,5.7620117E1,3.0826404E2,1.1805713E2,2.5210864E2,5.5994745E2,2.5863708E1,5.675473E1,1.68125E1,2.2093445E1,0E0,0E0,0E0,0E0,0E0,0E0,0E0,0E0,0E0,0E0,0E0,0E0,0E0,0E0,0E0,0E0],"parents":[2147483647,0,0,1,1,2,2,3,3,4,4,5,5,6,6,7,7,8,8,9,9,10,10,11,11,12,12,13,13,14,14],"right_children":[2,4,6,8,10,12,14,16,18,20,22,24,26,28,30,-1,-1,-1,-1,-1,-1,-1,-1,-1,-1,-1,-1,-1,-1,-1,-1],"split_conditions":[1E0,4.6E1,5E1,9.5E1,5.7E1,5.6E1,7.6E1,2.57E1,2.9E1,2.72E1,6.5E1,2.1914892E0,2.7E1,1.4032258E0,2.581818E0,-1.4717457E-2,-3.1256871E-3,-4.02738E-2,-1.9624801E-2,5.8757286E-3,1.8042376E-2,-5.2560037E-3,1.0682511E-2,2.171436E-2,3.462275E-2,-1.6115528E-2,1.7392533E-2,2.4900239E-2,3.761285E-2,2.2560744E-2,3.322887E-2],"split_indices":[18,0,0,2,2,2,2,6,0,6,0,24,0,23,24,0,0,0,0,0,0,0,0,0,0,0,0,0,0,0,0],"split_type":[0,0,0,0,0,0,0,0,0,0,0,0,0,0,0,0,0,0,0,0,0,0,0,0,0,0,0,0,0,0,0],"sum_hessian":[1.0021411E5,8.87374E4,1.1476715E4,3.1979002E4,5.6758395E4,5.490968E3,5.985747E3,2.2705998E4,9.273003E3,1.8578385E4,3.8180008E4,1.8052524E3,3.685715E3,3.4115422E3,2.5742048E3,1.0833608E4,1.187239E4,7.6054626E2,8.512457E3,1.2123224E4,6.4551616E3,3.164333E4,6.536678E3,7.893353E2,1.0159172E3,1.23020546E2,3.5626946E3,3.7942194E2,3.0321204E3,1.7538993E3,8.203056E2],"tree_param":{"num_deleted":"0","num_feature":"39","num_nodes":"31","size_leaf_vector":"1"}},{"base_weights":[1.7675156E-3,-6.4503774E-2,5.213433E-1,-1.6677311E-1,1.0192195E-1,6.3103974E-1,3.8796845E-1,-1.1303857E-1,-4.320501E-1,2.3959959E-1,-1.2468358E-2,4.9306276E-1,7.028333E-1,3.277774E-1,6.416383E-1,-2.84019E-2,-4.4591893E-3,-1.8108688E-2,-2.9690186E-2,1.0267453E-2,3.1745385E-2,-3.1602008E-3,1.5062989E-2,5.7119695E-3,2.606932E-2,3.1825725E-2,3.9668787E-2,1.9442655E-2,5.808482E-3,3.358575E-2,1.664798E-2],"categories":[],"categories_nodes":[],"categories_segments":[],"categories_sizes":[],"default_left":[0,0,0,0,0,0,0,0,0,0,0,0,0,0,0,0,0,0,0,0,0,0,0,0,0,0,0,0,0,0,0],"id":24,"left_children":[1,3,5,7,9,11,13,15,17,19,21,23,25,27,29,-1,-1,-1,-1,-1,-1,-1,-1,-1,-1,-1,-1,-1,-1,-1,-1],"loss_changes":[3.4458552E3,1.5100616E3,1.6197217E2,7.8148804E2,5.3232697E2,5.7041992E1,7.478308E1,4.8358173E2,9.96228E1,1.9697772E2,2.9772992E2,2.4110596E1,1.8760742E1,5.4460785E1,6.9392395E0,0E0,0E0,0E0,0E0,0E0,0E0,0E0,0E0,0E0,0E0,0E0,0E0,0E0,0E0,0E0,0E0],"parents":[2147483647,0,0,1,1,2,2,3,3,4,4,5,5,6,6,7,7,8,8,9,9,10,10,11,11,12,12,13,13,14,14],"right_children":[2,4,6,8,10,12,14,16,18,20,22,24,26,28,30,-1,-1,-1,-1,-1,-1,-1,-1,-1,-1,-1,-1,-1,-1,-1,-1],"split_conditions":[1E0,5.4E1,2.876106E0,4.5454545E0,2.6033056E0,4.6E1,6.1E1,2.9E1,7.0881224E0,7.2E1,6.9E1,2.9E1,5.9E1,5.1724133E0,6.6812224E0,-2.84019E-2,-4.4591893E-3,-1.8108688E-2,-2.9690186E-2,1.0267453E-2,3.1745385E-2,-3.1602008E-3,1.5062989E-2,5.7119695E-3,2.606932E-2,3.1825725E-2,3.9668787E-2,1.9442655E-2,5.808482E-3,3.358575E-2,1.664798E-2],"split_indices":[18,0,26,26,26,0,0,0,26,0,0,0,0,26,26,0,0,0,0,0,0,0,0,0,0,0,0,0,0,0,0],"split_type":[0,0,0,0,0,0,0,0,0,0,0,0,0,0,0,0,0,0,0,0,0,0,0,0,0,0,0,0,0,0,0],"sum_hessian":[1.0002747E5,8.8707016E4,1.1320454E4,5.4956562E4,3.3750457E4,6.1960645E3,5.12439E3,4.5711215E4,9.245345E3,1.5329451E4,1.8421006E4,2.1388267E3,4.0572378E3,4.1538794E3,9.705107E2,2.1816865E3,4.352953E4,6.6125254E3,2.632819E3,1.4185471E4,1.1439811E3,1.5861381E4,2.5596243E3,1.7841408E2,1.9604126E3,2.5144045E3,1.5428331E3,3.1700369E3,9.8384235E2,8.586227E2,1.11888016E2],"tree_param":{"num_deleted":"0","num_feature":"39","num_nodes":"31","size_leaf_vector":"1"}},{"base_weights":[6.7856733E-4,-6.2610485E-2,5.040946E-1,-2.651819E-1,1.4315307E-2,5.760201E-1,3.0698115E-1,-6.3933295E-1,-2.306595E-1,8.44537E-2,-1.8031605E-1,4.656082E-1,6.750196E-1,6.9889136E-2,3.769253E-1,-2.2021594E-2,-3.687804E-2,-5.6374357E-3,-1.6891237E-2,9.39636E-4,1.3342618E-2,-6.4886766E-3,-2.4447327E-2,-1.92143E-3,2.4316939E-2,3.1733487E-2,4.378848E-2,-1.8225232E-3,1.4362702E-2,1.554309E-2,2.8418664E-2],"categories":[],"categories_nodes":[],"categories_segments":[],"categories_sizes":[],"default_left":[0,0,0,0,0,0,0,0,0,0,0,0,0,0,0,0,0,0,0,0,0,0,0,0,0,0,0,0,0,0,0],"id":25,"left_children":[1,3,5,7,9,11,13,15,17,19,21,23,25,27,29,-1,-1,-1,-1,-1,-1,-1,-1,-1,-1,-1,-1,-1,-1,-1,-1],"loss_changes":[3.1784648E3,1.3810734E3,1.5481494E2,3.1194836E2,8.7584814E2,8.4951904E1,4.8083466E1,3.747119E1,2.8570605E2,5.6965283E2,2.6063074E2,4.9808777E1,2.5660889E1,1.7130543E1,2.5482971E1,0E0,0E0,0E0,0E0,0E0,0E0,0E0,0E0,0E0,0E0,0E0,0E0,0E0,0E0,0E0,0E0],"parents":[2147483647,0,0,1,1,2,2,3,3,4,4,5,5,6,6,7,7,8,8,9,9,10,10,11,11,12,12,13,13,14,14],"right_children":[2,4,6,8,10,12,14,16,18,20,22,24,26,28,30,-1,-1,-1,-1,-1,-1,-1,-1,-1,-1,-1,-1,-1,-1,-1,-1],"split_conditions":[1E0,4.3E1,3.712121E0,2.8E1,3.7554584E0,5E1,4.1E1,2.24E0,2.7906976E0,6.1E1,7.66187E0,2.8E1,6.8E1,2.57E1,6.1E1,-2.2021594E-2,-3.687804E-2,-5.6374357E-3,-1.6891237E-2,9.39636E-4,1.3342618E-2,-6.4886766E-3,-2.4447327E-2,-1.92143E-3,2.4316939E-2,3.1733487E-2,4.378848E-2,-1.8225232E-3,1.4362702E-2,1.554309E-2,2.8418664E-2],"split_indices":[18,0,26,0,26,0,0,26,26,0,26,0,0,6,0,0,0,0,0,0,0,0,0,0,0,0,0,0,0,0,0],"split_type":[0,0,0,0,0,0,0,0,0,0,0,0,0,0,0,0,0,0,0,0,0,0,0,0,0,0,0,0,0,0,0],"sum_hessian":[9.971236E4,8.8571086E4,1.1141271E4,2.4389133E4,6.4181953E4,8.1490073E3,2.9922646E3,2.050824E3,2.2338309E4,4.719317E4,1.698878E4,3.8707207E3,4.2782866E3,6.931323E2,2.2991323E3,7.265283E2,1.3242958E3,1.0837515E4,1.1500793E4,3.48459E4,1.2347273E4,1.4677684E4,2.3110955E3,1.7428925E2,3.6964314E3,3.67606E3,6.022264E2,4.565441E2,2.365882E2,1.7511974E3,5.479349E2],"tree_param":{"num_deleted":"0","num_feature":"39","num_nodes":"31","size_leaf_vector":"1"}},{"base_weights":[1.0151245E-3,-1.55815E-1,8.960854E-2,3.0090231E-3,-2.3580503E-1,2.3032977E-1,-7.781137E-4,-2.6771542E-1,4.665189E-2,-6.5321827E-1,-2.0782983E-1,1.3882622E-1,3.40726E-1,-3.386672E-2,3.6094093E-1,-2.3342652E-2,-9.60462E-3,-9.211397E-4,1.0545734E-2,-3.614079E-2,-2.122237E-2,-1.3330887E-2,-2.3146553E-3,4.601577E-3,1.8800033E-2,2.8286017E-2,1.44986985E-2,-4.2671864E-3,8.811781E-3,1.0786033E-2,2.446704E-2],"categories":[],"categories_nodes":[],"categories_segments":[],"categories_sizes":[],"default_left":[0,0,0,0,0,0,0,0,0,0,0,0,0,0,0,0,0,0,0,0,0,0,0,0,0,0,0,0,0,0,0],"id":26,"left_children":[1,3,5,7,9,11,13,15,17,19,21,23,25,27,29,-1,-1,-1,-1,-1,-1,-1,-1,-1,-1,-1,-1,-1,-1,-1,-1],"loss_changes":[1.3831316E3,4.5722626E2,8.1021094E2,1.4126958E2,2.7612915E2,2.4988965E2,4.6249347E2,2.2576431E1,1.128621E2,2.1227295E1,2.1915143E2,1.491835E2,1.22115234E2,3.91498E2,5.8985626E1,0E0,0E0,0E0,0E0,0E0,0E0,0E0,0E0,0E0,0E0,0E0,0E0,0E0,0E0,0E0,0E0],"parents":[2147483647,0,0,1,1,2,2,3,3,4,4,5,5,6,6,7,7,8,8,9,9,10,10,11,11,12,12,13,13,14,14],"right_children":[2,4,6,8,10,12,14,16,18,20,22,24,26,28,30,-1,-1,-1,-1,-1,-1,-1,-1,-1,-1,-1,-1,-1,-1,-1,-1],"split_conditions":[4.6E1,2.2267206E0,2.3873873E0,1.1E2,2.8E1,1.29E2,6.9E1,1.04E2,2.81E1,2.0612245E0,1.35E2,6.5E1,3.2E1,1.41E2,7.2E1,-2.3342652E-2,-9.60462E-3,-9.211397E-4,1.0545734E-2,-3.614079E-2,-2.122237E-2,-1.3330887E-2,-2.3146553E-3,4.601577E-3,1.8800033E-2,2.8286017E-2,1.44986985E-2,-4.2671864E-3,8.811781E-3,1.0786033E-2,2.446704E-2],"split_indices":[0,26,26,22,0,14,0,14,6,23,14,0,2,14,0,0,0,0,0,0,0,0,0,0,0,0,0,0,0,0,0],"split_type":[0,0,0,0,0,0,0,0,0,0,0,0,0,0,0,0,0,0,0,0,0,0,0,0,0,0,0,0,0,0,0],"sum_hessian":[9.956291E4,3.5926234E4,6.363667E4,1.2019261E4,2.3906975E4,2.49028E4,3.873387E4,1.6572023E3,1.0362058E4,1.4929315E3,2.2414043E4,1.3634378E4,1.1268424E4,3.549687E4,3.236998E3,4.2962943E2,1.2275728E3,7.424555E3,2.937503E3,1.1055892E3,3.8734235E2,1.6246067E4,6.1679766E3,1.1454486E4,2.1798909E3,1.9473281E3,9.321096E3,2.8487361E4,7.009511E3,1.566978E3,1.6700201E3],"tree_param":{"num_deleted":"0","num_feature":"39","num_nodes":"31","size_leaf_vector":"1"}}]},"name":"gbtree"},"learner_model_param":{"base_score":"[6.2329644E-1]","boost_from_average":"1","num_class":"0","num_feature":"39","num_target":"1"},"objective":{"name":"binary:logistic","reg_loss_param":{"scale_pos_weight":"1"}}},"version":[3,1,2]}